digraph Tree {
node [shape=box, style="filled", color="black", fontname="helvetica"] ;
edge [fontname="helvetica"] ;
0 [label="odor_n <= 0.5\ngini = 0.499\nsamples = 5686\nvalue = [2936, 2750]\nclass = 독", fillcolor="#fdf7f2"] ;
1 [label="stalk-root_c <= 0.5\ngini = 0.28\nsamples = 3203\nvalue = [540, 2663]\nclass = 식용", fillcolor="#61b1ea"] ;
0 -> 1 [labeldistance=2.5, labelangle=45, headlabel="True"] ;
2 [label="stalk-root_r <= 0.5\ngini = 0.129\nsamples = 2831\nvalue = [196, 2635]\nclass = 식용", fillcolor="#48a4e7"] ;
1 -> 2 ;
3 [label="odor_l <= 0.5\ngini = 0.046\nsamples = 2698\nvalue = [63, 2635]\nclass = 식용", fillcolor="#3e9fe6"] ;
2 -> 3 ;
4 [label="odor_a <= 0.5\ngini = 0.021\nsamples = 2663\nvalue = [28, 2635]\nclass = 식용", fillcolor="#3b9ee5"] ;
3 -> 4 ;
5 [label="gini = 0.0\nsamples = 2635\nvalue = [0, 2635]\nclass = 식용", fillcolor="#399de5"] ;
4 -> 5 ;
6 [label="gini = 0.0\nsamples = 28\nvalue = [28, 0]\nclass = 독", fillcolor="#e58139"] ;
4 -> 6 ;
7 [label="gini = 0.0\nsamples = 35\nvalue = [35, 0]\nclass = 독", fillcolor="#e58139"] ;
3 -> 7 ;
8 [label="gini = 0.0\nsamples = 133\nvalue = [133, 0]\nclass = 독", fillcolor="#e58139"] ;
2 -> 8 ;
9 [label="stalk-color-above-ring_w <= 0.5\ngini = 0.139\nsamples = 372\nvalue = [344, 28]\nclass = 독", fillcolor="#e78b49"] ;
1 -> 9 ;
10 [label="gini = 0.0\nsamples = 28\nvalue = [0, 28]\nclass = 식용", fillcolor="#399de5"] ;
9 -> 10 ;
11 [label="gini = 0.0\nsamples = 344\nvalue = [344, 0]\nclass = 독", fillcolor="#e58139"] ;
9 -> 11 ;
12 [label="spore-print-color_r <= 0.5\ngini = 0.068\nsamples = 2483\nvalue = [2396, 87]\nclass = 독", fillcolor="#e68640"] ;
0 -> 12 [labeldistance=2.5, labelangle=-45, headlabel="False"] ;
13 [label="stalk-surface-below-ring_y <= 0.5\ngini = 0.029\nsamples = 2432\nvalue = [2396, 36]\nclass = 독", fillcolor="#e5833c"] ;
12 -> 13 ;
14 [label="cap-surface_g <= 0.5\ngini = 0.005\nsamples = 2391\nvalue = [2385, 6]\nclass = 독", fillcolor="#e58139"] ;
13 -> 14 ;
15 [label="cap-shape_c <= 0.5\ngini = 0.003\nsamples = 2388\nvalue = [2385, 3]\nclass = 독", fillcolor="#e58139"] ;
14 -> 15 ;
16 [label="gill-size_n <= 0.5\ngini = 0.002\nsamples = 2387\nvalue = [2385, 2]\nclass = 독", fillcolor="#e58139"] ;
15 -> 16 ;
17 [label="gini = 0.0\nsamples = 2246\nvalue = [2246, 0]\nclass = 독", fillcolor="#e58139"] ;
16 -> 17 ;
18 [label="bruises_f <= 0.5\ngini = 0.028\nsamples = 141\nvalue = [139, 2]\nclass = 독", fillcolor="#e5833c"] ;
16 -> 18 ;
19 [label="gini = 0.0\nsamples = 2\nvalue = [0, 2]\nclass = 식용", fillcolor="#399de5"] ;
18 -> 19 ;
20 [label="gini = 0.0\nsamples = 139\nvalue = [139, 0]\nclass = 독", fillcolor="#e58139"] ;
18 -> 20 ;
21 [label="gini = 0.0\nsamples = 1\nvalue = [0, 1]\nclass = 식용", fillcolor="#399de5"] ;
15 -> 21 ;
22 [label="gini = 0.0\nsamples = 3\nvalue = [0, 3]\nclass = 식용", fillcolor="#399de5"] ;
14 -> 22 ;
23 [label="ring-number_t <= 0.5\ngini = 0.393\nsamples = 41\nvalue = [11, 30]\nclass = 식용", fillcolor="#82c1ef"] ;
13 -> 23 ;
24 [label="gini = 0.0\nsamples = 30\nvalue = [0, 30]\nclass = 식용", fillcolor="#399de5"] ;
23 -> 24 ;
25 [label="gini = 0.0\nsamples = 11\nvalue = [11, 0]\nclass = 독", fillcolor="#e58139"] ;
23 -> 25 ;
26 [label="gini = 0.0\nsamples = 51\nvalue = [0, 51]\nclass = 식용", fillcolor="#399de5"] ;
12 -> 26 ;
}